encog,BasicNetwork,java,3.4.0,1,63775134609337
[BASIC]
[BASIC:PARAMS]
[BASIC:NETWORK]
beginTraining=0
connectionLimit=0
contextTargetOffset=0,0,0
contextTargetSize=0,0,0
endTraining=2
hasContext=f
inputCount=4
layerCounts=3,7,4
layerFeedCounts=2,6,4
layerContextCount=0,0,0
layerIndex=0,3,10
output=0,0,1,0,0,0,0,0,0,1,0,0,0,0
outputCount=2
weightIndex=0,14,38
weights=0.0748892710912575,1.98013821960916,-1.21426622155973,-0.90760928448817,2.26268960552178,0.975066359638211,-0.691384717172634,0.984934402835769,-1.37618340278901,1.60994169564825,1.80118256799788,-1.40930720954159,1.38381806033914,0.625511225657678,-0.609459738077621,-0.173353760266396,1.30878781464118,0.763653421500812,1.162288463117,-0.397566174998404,-2.02503292400952,-1.02029222946355,2.62951723229989,-3.24550459864226,-0.954499271902788,2.44422841150916,-0.946584000153113,2.58407260205464,-1.73156581408227,-4.61266643547126,11.0535782834205,-41.8427370676532,51.5360846126888,-3.81503826518683,-0.162814296663467,0.0980717063257292,0.388874170293911,0.33521700092462
biasActivation=1,1,0
[BASIC:ACTIVATION]
"ActivationTANH"
"ActivationTANH"
"ActivationLinear"
